public class XGB {
    public static double score(int[] input) {
        double var0;
        if ((input[98]) >= (1.0)) {
            if ((input[78]) >= (1.0)) {
                if ((input[107]) >= (1.0)) {
                    var0 = 2.15718961;
                } else {
                    var0 = 1.24151766;
                }
            } else {
                if ((input[108]) >= (1.0)) {
                    var0 = 0.881504059;
                } else {
                    var0 = 0.106411122;
                }
            }
        } else {
            if ((input[83]) >= (1.0)) {
                if ((input[93]) >= (1.0)) {
                    var0 = 1.0239594;
                } else {
                    var0 = 0.435070604;
                }
            } else {
                if ((input[99]) >= (1.0)) {
                    var0 = 0.78892839;
                } else {
                    var0 = 0.021169059;
                }
            }
        }
        double var1;
        if ((input[96]) >= (1.0)) {
            if ((input[76]) >= (1.0)) {
                if ((input[105]) >= (1.0)) {
                    var1 = 2.15466642;
                } else {
                    var1 = 1.21892858;
                }
            } else {
                if ((input[106]) >= (1.0)) {
                    var1 = 0.833624363;
                } else {
                    var1 = 0.0187913217;
                }
            }
        } else {
            if ((input[88]) >= (1.0)) {
                if ((input[68]) >= (1.0)) {
                    var1 = 1.24919879;
                } else {
                    var1 = 0.552012384;
                }
            } else {
                if ((input[93]) >= (1.0)) {
                    var1 = 0.733824193;
                } else {
                    var1 = 0.0127744591;
                }
            }
        }
        double var2;
        if ((input[86]) >= (1.0)) {
            if ((input[66]) >= (1.0)) {
                if ((input[95]) >= (1.0)) {
                    var2 = 1.91372991;
                } else {
                    var2 = 1.10554588;
                }
            } else {
                if ((input[96]) >= (1.0)) {
                    var2 = 0.842694402;
                } else {
                    var2 = -0.0271364804;
                }
            }
        } else {
            if ((input[99]) >= (1.0)) {
                if ((input[79]) >= (1.0)) {
                    var2 = 1.1945864;
                } else {
                    var2 = 0.529488266;
                }
            } else {
                if ((input[98]) >= (1.0)) {
                    var2 = 0.685932636;
                } else {
                    var2 = 0.00739138713;
                }
            }
        }
        double var3;
        if ((input[95]) >= (1.0)) {
            if ((input[91]) >= (1.0)) {
                if ((input[98]) >= (1.0)) {
                    var3 = 2.1080544;
                } else {
                    var3 = 1.04345024;
                }
            } else {
                if ((input[105]) >= (1.0)) {
                    var3 = 1.43823731;
                } else {
                    var3 = 0.18681176;
                }
            }
        } else {
            if ((input[93]) >= (1.0)) {
                if ((input[73]) >= (1.0)) {
                    var3 = 1.08913815;
                } else {
                    var3 = 0.496913195;
                }
            } else {
                if ((input[88]) >= (1.0)) {
                    var3 = 0.600021005;
                } else {
                    var3 = 0.00616845535;
                }
            }
        }
        double var4;
        if ((input[86]) >= (1.0)) {
            if ((input[76]) >= (1.0)) {
                if ((input[110]) >= (1.0)) {
                    var4 = 2.28905177;
                } else {
                    var4 = 0.821895897;
                }
            } else {
                if ((input[96]) >= (1.0)) {
                    var4 = 0.624686897;
                } else {
                    var4 = -1.12455571;
                }
            }
        } else {
            if ((input[99]) >= (1.0)) {
                if ((input[79]) >= (1.0)) {
                    var4 = 1.0708096;
                } else {
                    var4 = 0.465651721;
                }
            } else {
                if ((input[111]) >= (1.0)) {
                    var4 = 0.625205815;
                } else {
                    var4 = -0.00157168123;
                }
            }
        }
        double var5;
        if ((input[83]) >= (1.0)) {
            if ((input[63]) >= (1.0)) {
                if ((input[104]) >= (1.0)) {
                    var5 = 2.74628806;
                } else {
                    var5 = 1.0818398;
                }
            } else {
                if ((input[93]) >= (1.0)) {
                    var5 = 0.697120845;
                } else {
                    var5 = -0.120996453;
                }
            }
        } else {
            if ((input[96]) >= (1.0)) {
                if ((input[76]) >= (1.0)) {
                    var5 = 0.9493379;
                } else {
                    var5 = 0.450920582;
                }
            } else {
                if ((input[89]) >= (1.0)) {
                    var5 = 0.559116542;
                } else {
                    var5 = -0.00831368659;
                }
            }
        }
        double var6;
        if ((input[94]) >= (1.0)) {
            if ((input[92]) >= (1.0)) {
                if ((input[98]) >= (1.0)) {
                    var6 = 1.87333286;
                } else {
                    var6 = 0.92837745;
                }
            } else {
                if ((input[84]) >= (1.0)) {
                    var6 = 1.20117915;
                } else {
                    var6 = 0.144505024;
                }
            }
        } else {
            if ((input[100]) >= (1.0)) {
                if ((input[107]) >= (1.0)) {
                    var6 = 0.98761636;
                } else {
                    var6 = 0.211596206;
                }
            } else {
                if ((input[122]) >= (1.0)) {
                    var6 = 0.56138438;
                } else {
                    var6 = -0.0110400757;
                }
            }
        }
        double var7;
        if ((input[98]) >= (1.0)) {
            if ((input[78]) >= (1.0)) {
                if ((input[121]) >= (1.0)) {
                    var7 = 2.83244872;
                } else {
                    var7 = 0.923219025;
                }
            } else {
                if ((input[108]) >= (1.0)) {
                    var7 = 0.657953024;
                } else {
                    var7 = -0.114005879;
                }
            }
        } else {
            if ((input[83]) >= (1.0)) {
                if ((input[63]) >= (1.0)) {
                    var7 = 0.976318359;
                } else {
                    var7 = 0.371066213;
                }
            } else {
                if ((input[56]) >= (1.0)) {
                    var7 = 0.422243446;
                } else {
                    var7 = -0.0253190529;
                }
            }
        }
        double var8;
        if ((input[89]) >= (1.0)) {
            if ((input[69]) >= (1.0)) {
                if ((input[64]) >= (1.0)) {
                    var8 = 1.87480831;
                } else {
                    var8 = 0.996064186;
                }
            } else {
                if ((input[99]) >= (1.0)) {
                    var8 = 0.619078934;
                } else {
                    var8 = -0.207170799;
                }
            }
        } else {
            if ((input[68]) >= (1.0)) {
                if ((input[58]) >= (1.0)) {
                    var8 = 0.859762788;
                } else {
                    var8 = -0.0378895253;
                }
            } else {
                if ((input[111]) >= (1.0)) {
                    var8 = 0.547394812;
                } else {
                    var8 = -0.0266597476;
                }
            }
        }
        double var9;
        if ((input[95]) >= (1.0)) {
            if ((input[91]) >= (1.0)) {
                if ((input[98]) >= (1.0)) {
                    var9 = 1.65135276;
                } else {
                    var9 = 0.831629574;
                }
            } else {
                if ((input[85]) >= (1.0)) {
                    var9 = 1.1171174;
                } else {
                    var9 = 0.126885518;
                }
            }
        } else {
            if ((input[102]) >= (1.0)) {
                if ((input[104]) >= (1.0)) {
                    var9 = 0.892943025;
                } else {
                    var9 = 0.189158663;
                }
            } else {
                if ((input[123]) >= (1.0)) {
                    var9 = 0.516455948;
                } else {
                    var9 = -0.0235409848;
                }
            }
        }
        double var10;
        if ((input[88]) >= (1.0)) {
            if ((input[68]) >= (1.0)) {
                if ((input[48]) >= (1.0)) {
                    var10 = 1.71634865;
                } else {
                    var10 = 0.928236306;
                }
            } else {
                if ((input[98]) >= (1.0)) {
                    var10 = 0.60746628;
                } else {
                    var10 = -0.239986107;
                }
            }
        } else {
            if ((input[96]) >= (1.0)) {
                if ((input[116]) >= (1.0)) {
                    var10 = 0.870584667;
                } else {
                    var10 = 0.385920256;
                }
            } else {
                if ((input[93]) >= (1.0)) {
                    var10 = 0.496241868;
                } else {
                    var10 = -0.0303936247;
                }
            }
        }
        double var11;
        if ((input[114]) >= (1.0)) {
            if ((input[112]) >= (1.0)) {
                if ((input[106]) >= (1.0)) {
                    var11 = 1.65600336;
                } else {
                    var11 = 0.816705525;
                }
            } else {
                if ((input[84]) >= (1.0)) {
                    var11 = 1.53457177;
                } else {
                    var11 = 0.0936180055;
                }
            }
        } else {
            if ((input[56]) >= (1.0)) {
                if ((input[46]) >= (1.0)) {
                    var11 = 0.872875154;
                } else {
                    var11 = -0.0538994186;
                }
            } else {
                if ((input[99]) >= (1.0)) {
                    var11 = 0.488736212;
                } else {
                    var11 = -0.037740577;
                }
            }
        }
        double var12;
        if ((input[86]) >= (1.0)) {
            if ((input[76]) >= (1.0)) {
                if ((input[66]) >= (1.0)) {
                    var12 = 0.886363149;
                } else {
                    var12 = 0.524721324;
                }
            } else {
                if ((input[96]) >= (1.0)) {
                    var12 = 0.454890877;
                } else {
                    var12 = -1.09746671;
                }
            }
        } else {
            if ((input[53]) >= (1.0)) {
                if ((input[43]) >= (1.0)) {
                    var12 = 0.885947347;
                } else {
                    var12 = -0.079082422;
                }
            } else {
                if ((input[69]) >= (1.0)) {
                    var12 = 0.404622793;
                } else {
                    var12 = -0.050419271;
                }
            }
        }
        double var13;
        if ((input[124]) >= (1.0)) {
            if ((input[121]) >= (1.0)) {
                if ((input[69]) >= (1.0)) {
                    var13 = 2.27481413;
                } else {
                    var13 = 0.763125062;
                }
            } else {
                if ((input[89]) >= (1.0)) {
                    var13 = 1.47447503;
                } else {
                    var13 = 0.0901336893;
                }
            }
        } else {
            if ((input[81]) >= (1.0)) {
                if ((input[85]) >= (1.0)) {
                    var13 = 0.973302066;
                } else {
                    var13 = 0.0124127558;
                }
            } else {
                if ((input[48]) >= (1.0)) {
                    var13 = 0.364610255;
                } else {
                    var13 = -0.0490373038;
                }
            }
        }
        double var14;
        if ((input[94]) >= (1.0)) {
            if ((input[92]) >= (1.0)) {
                if ((input[84]) >= (1.0)) {
                    var14 = 1.85568273;
                } else {
                    var14 = 0.763134778;
                }
            } else {
                if ((input[104]) >= (1.0)) {
                    var14 = 1.14660108;
                } else {
                    var14 = 0.125802487;
                }
            }
        } else {
            if ((input[105]) >= (1.0)) {
                if ((input[101]) >= (1.0)) {
                    var14 = 0.798037589;
                } else {
                    var14 = 0.179236889;
                }
            } else {
                if ((input[73]) >= (1.0)) {
                    var14 = 0.413070589;
                } else {
                    var14 = -0.0430222787;
                }
            }
        }
        double var15;
        if ((input[0]) >= (1.0)) {
            if ((input[2]) >= (1.0)) {
                if ((input[76]) >= (1.0)) {
                    var15 = 1.82113063;
                } else {
                    var15 = 0.687068641;
                }
            } else {
                if ((input[1]) >= (1.0)) {
                    var15 = 0.581797063;
                } else {
                    var15 = -0.00192871352;
                }
            }
        } else {
            if ((input[59]) >= (1.0)) {
                if ((input[49]) >= (1.0)) {
                    var15 = 0.874547005;
                } else {
                    var15 = -0.102486469;
                }
            } else {
                if ((input[19]) >= (1.0)) {
                    var15 = 0.321667194;
                } else {
                    var15 = -0.0710624978;
                }
            }
        }
        double var16;
        if ((input[88]) >= (1.0)) {
            if ((input[68]) >= (1.0)) {
                if ((input[103]) >= (1.0)) {
                    var16 = 2.67003322;
                } else {
                    var16 = 0.873953164;
                }
            } else {
                if ((input[98]) >= (1.0)) {
                    var16 = 0.5477826;
                } else {
                    var16 = -0.221585423;
                }
            }
        } else {
            if ((input[66]) >= (1.0)) {
                if ((input[56]) >= (1.0)) {
                    var16 = 0.767042339;
                } else {
                    var16 = -0.0978061184;
                }
            } else {
                if ((input[93]) >= (1.0)) {
                    var16 = 0.447596788;
                } else {
                    var16 = -0.0528886616;
                }
            }
        }
        double var17;
        if ((input[110]) >= (1.0)) {
            if ((input[117]) >= (1.0)) {
                if ((input[72]) >= (1.0)) {
                    var17 = 1.90940857;
                } else {
                    var17 = 0.752613127;
                }
            } else {
                if ((input[90]) >= (1.0)) {
                    var17 = 1.32706487;
                } else {
                    var17 = 0.0983852968;
                }
            }
        } else {
            if ((input[58]) >= (1.0)) {
                if ((input[48]) >= (1.0)) {
                    var17 = 0.851499677;
                } else {
                    var17 = -0.12544249;
                }
            } else {
                if ((input[89]) >= (1.0)) {
                    var17 = 0.419497162;
                } else {
                    var17 = -0.0530732162;
                }
            }
        }
        double var18;
        if ((input[63]) >= (1.0)) {
            if ((input[53]) >= (1.0)) {
                if ((input[43]) >= (1.0)) {
                    var18 = 1.16395509;
                } else {
                    var18 = 0.612990558;
                }
            } else {
                if ((input[73]) >= (1.0)) {
                    var18 = 0.435908854;
                } else {
                    var18 = -1.36300838;
                }
            }
        } else {
            if ((input[7]) >= (1.0)) {
                if ((input[4]) >= (1.0)) {
                    var18 = 0.639606714;
                } else {
                    var18 = 0.170617968;
                }
            } else {
                if ((input[84]) >= (1.0)) {
                    var18 = 0.382423639;
                } else {
                    var18 = -0.0657816157;
                }
            }
        }
        double var19;
        if ((input[122]) >= (1.0)) {
            if ((input[123]) >= (1.0)) {
                if ((input[69]) >= (1.0)) {
                    var19 = 2.05511355;
                } else {
                    var19 = 0.698830485;
                }
            } else {
                if ((input[93]) >= (1.0)) {
                    var19 = 1.49089229;
                } else {
                    var19 = 0.0867374614;
                }
            }
        } else {
            if ((input[95]) >= (1.0)) {
                if ((input[91]) >= (1.0)) {
                    var19 = 0.703366756;
                } else {
                    var19 = 0.155282661;
                }
            } else {
                if ((input[68]) >= (1.0)) {
                    var19 = 0.343074083;
                } else {
                    var19 = -0.0547548532;
                }
            }
        }
        double var20;
        if ((input[96]) >= (1.0)) {
            if ((input[116]) >= (1.0)) {
                if ((input[62]) >= (1.0)) {
                    var20 = 2.12960601;
                } else {
                    var20 = 0.760374308;
                }
            } else {
                if ((input[86]) >= (1.0)) {
                    var20 = 0.524611473;
                } else {
                    var20 = -0.30449608;
                }
            }
        } else {
            if ((input[69]) >= (1.0)) {
                if ((input[59]) >= (1.0)) {
                    var20 = 0.766045928;
                } else {
                    var20 = -0.13661471;
                }
            } else {
                if ((input[19]) >= (1.0)) {
                    var20 = 0.291994631;
                } else {
                    var20 = -0.064806819;
                }
            }
        }
        double var21;
        if ((input[98]) >= (1.0)) {
            if ((input[118]) >= (1.0)) {
                if ((input[104]) >= (1.0)) {
                    var21 = 2.08099723;
                } else {
                    var21 = 0.746788919;
                }
            } else {
                if ((input[88]) >= (1.0)) {
                    var21 = 0.506589592;
                } else {
                    var21 = -0.246036395;
                }
            }
        } else {
            if ((input[109]) >= (1.0)) {
                if ((input[99]) >= (1.0)) {
                    var21 = 0.594845831;
                } else {
                    var21 = 0.144869;
                }
            } else {
                if ((input[66]) >= (1.0)) {
                    var21 = 0.334591776;
                } else {
                    var21 = -0.0559694842;
                }
            }
        }
        double var22;
        if ((input[100]) >= (1.0)) {
            if ((input[107]) >= (1.0)) {
                if ((input[72]) >= (1.0)) {
                    var22 = 2.14254355;
                } else {
                    var22 = 0.720198393;
                }
            } else {
                if ((input[66]) >= (1.0)) {
                    var22 = 1.3208586;
                } else {
                    var22 = 0.133872315;
                }
            }
        } else {
            if ((input[0]) >= (1.0)) {
                if ((input[2]) >= (1.0)) {
                    var22 = 0.622751415;
                } else {
                    var22 = 0.15430586;
                }
            } else {
                if ((input[18]) >= (1.0)) {
                    var22 = 0.291609317;
                } else {
                    var22 = -0.0700290129;
                }
            }
        }
        double var23;
        if ((input[16]) >= (1.0)) {
            if ((input[26]) >= (1.0)) {
                if ((input[6]) >= (1.0)) {
                    var23 = 1.29688776;
                } else {
                    var23 = 0.817056358;
                }
            } else {
                if ((input[6]) >= (1.0)) {
                    var23 = 0.556646287;
                } else {
                    var23 = -0.258695364;
                }
            }
        } else {
            if ((input[39]) >= (1.0)) {
                if ((input[49]) >= (1.0)) {
                    var23 = 0.965604305;
                } else {
                    var23 = -0.125172615;
                }
            } else {
                if ((input[58]) >= (1.0)) {
                    var23 = 0.318046153;
                } else {
                    var23 = -0.0777876601;
                }
            }
        }
        double var24;
        if ((input[114]) >= (1.0)) {
            if ((input[112]) >= (1.0)) {
                if ((input[80]) >= (1.0)) {
                    var24 = 2.05238223;
                } else {
                    var24 = 0.69836545;
                }
            } else {
                if ((input[84]) >= (1.0)) {
                    var24 = 1.31583548;
                } else {
                    var24 = 0.0946189389;
                }
            }
        } else {
            if ((input[93]) >= (1.0)) {
                if ((input[113]) >= (1.0)) {
                    var24 = 0.815808237;
                } else {
                    var24 = 0.268817425;
                }
            } else {
                if ((input[23]) >= (1.0)) {
                    var24 = 0.300957888;
                } else {
                    var24 = -0.0612186268;
                }
            }
        }
        double var25;
        if ((input[81]) >= (1.0)) {
            if ((input[85]) >= (1.0)) {
                if ((input[88]) >= (1.0)) {
                    var25 = 1.53699815;
                } else {
                    var25 = 0.82423085;
                }
            } else {
                if ((input[71]) >= (1.0)) {
                    var25 = 0.854287267;
                } else {
                    var25 = -0.0589969829;
                }
            }
        } else {
            if ((input[64]) >= (1.0)) {
                if ((input[62]) >= (1.0)) {
                    var25 = 1.06339049;
                } else {
                    var25 = -0.0283993483;
                }
            } else {
                if ((input[72]) >= (1.0)) {
                    var25 = 0.341132939;
                } else {
                    var25 = -0.068449147;
                }
            }
        }
        double var26;
        if ((input[124]) >= (1.0)) {
            if ((input[121]) >= (1.0)) {
                if ((input[69]) >= (1.0)) {
                    var26 = 1.83918858;
                } else {
                    var26 = 0.648435295;
                }
            } else {
                if ((input[86]) >= (1.0)) {
                    var26 = 1.35224378;
                } else {
                    var26 = 0.099276416;
                }
            }
        } else {
            if ((input[38]) >= (1.0)) {
                if ((input[28]) >= (1.0)) {
                    var26 = 1.00803804;
                } else {
                    var26 = -0.0961413458;
                }
            } else {
                if ((input[53]) >= (1.0)) {
                    var26 = 0.314593911;
                } else {
                    var26 = -0.0703911632;
                }
            }
        }
        double var27;
        if ((input[106]) >= (1.0)) {
            if ((input[96]) >= (1.0)) {
                if ((input[85]) >= (1.0)) {
                    var27 = 1.40950823;
                } else {
                    var27 = 0.560947835;
                }
            } else {
                if ((input[116]) >= (1.0)) {
                    var27 = 0.388281226;
                } else {
                    var27 = -1.08782232;
                }
            }
        } else {
            if ((input[98]) >= (1.0)) {
                if ((input[108]) >= (1.0)) {
                    var27 = 0.574765384;
                } else {
                    var27 = 0.162606031;
                }
            } else {
                if ((input[79]) >= (1.0)) {
                    var27 = 0.34757781;
                } else {
                    var27 = -0.0575897098;
                }
            }
        }
        double var28;
        if ((input[95]) >= (1.0)) {
            if ((input[91]) >= (1.0)) {
                if ((input[64]) >= (1.0)) {
                    var28 = 1.63132977;
                } else {
                    var28 = 0.641282499;
                }
            } else {
                if ((input[75]) >= (1.0)) {
                    var28 = 1.19428432;
                } else {
                    var28 = 0.115321994;
                }
            }
        } else {
            if ((input[102]) >= (1.0)) {
                if ((input[104]) >= (1.0)) {
                    var28 = 0.682619154;
                } else {
                    var28 = 0.17175968;
                }
            } else {
                if ((input[7]) >= (1.0)) {
                    var28 = 0.275072366;
                } else {
                    var28 = -0.0649388954;
                }
            }
        }
        double var29;
        if ((input[56]) >= (1.0)) {
            if ((input[46]) >= (1.0)) {
                if ((input[36]) >= (1.0)) {
                    var29 = 1.1710813;
                } else {
                    var29 = 0.600648999;
                }
            } else {
                if ((input[66]) >= (1.0)) {
                    var29 = 0.51598084;
                } else {
                    var29 = -1.24086654;
                }
            }
        } else {
            if ((input[71]) >= (1.0)) {
                if ((input[75]) >= (1.0)) {
                    var29 = 0.942433178;
                } else {
                    var29 = -0.0330764763;
                }
            } else {
                if ((input[19]) >= (1.0)) {
                    var29 = 0.284712106;
                } else {
                    var29 = -0.0792597756;
                }
            }
        }
        double var30;
        if ((input[63]) >= (1.0)) {
            if ((input[53]) >= (1.0)) {
                if ((input[43]) >= (1.0)) {
                    var30 = 1.04111993;
                } else {
                    var30 = 0.535211086;
                }
            } else {
                if ((input[73]) >= (1.0)) {
                    var30 = 0.407447189;
                } else {
                    var30 = -1.22640395;
                }
            }
        } else {
            if ((input[39]) >= (1.0)) {
                if ((input[29]) >= (1.0)) {
                    var30 = 0.963654459;
                } else {
                    var30 = -0.0847656652;
                }
            } else {
                if ((input[54]) >= (1.0)) {
                    var30 = 0.307321995;
                } else {
                    var30 = -0.0768447518;
                }
            }
        }
        double var31;
        if ((input[109]) >= (1.0)) {
            if ((input[89]) >= (1.0)) {
                if ((input[112]) >= (1.0)) {
                    var31 = 1.6638056;
                } else {
                    var31 = 0.659812868;
                }
            } else {
                if ((input[119]) >= (1.0)) {
                    var31 = 0.504428089;
                } else {
                    var31 = -0.171263531;
                }
            }
        } else {
            if ((input[33]) >= (1.0)) {
                if ((input[23]) >= (1.0)) {
                    var31 = 0.98758167;
                } else {
                    var31 = -0.116568089;
                }
            } else {
                if ((input[68]) >= (1.0)) {
                    var31 = 0.313648939;
                } else {
                    var31 = -0.0690556541;
                }
            }
        }
        double var32;
        if ((input[110]) >= (1.0)) {
            if ((input[117]) >= (1.0)) {
                if ((input[59]) >= (1.0)) {
                    var32 = 1.65777326;
                } else {
                    var32 = 0.648931444;
                }
            } else {
                if ((input[125]) >= (1.0)) {
                    var32 = 1.41647744;
                } else {
                    var32 = 0.116587199;
                }
            }
        } else {
            if ((input[5]) >= (1.0)) {
                if ((input[0]) >= (1.0)) {
                    var32 = 0.562614143;
                } else {
                    var32 = 0.147924036;
                }
            } else {
                if ((input[13]) >= (1.0)) {
                    var32 = 0.279788256;
                } else {
                    var32 = -0.0755545124;
                }
            }
        }
        double var33;
        if ((input[86]) >= (1.0)) {
            if ((input[76]) >= (1.0)) {
                if ((input[110]) >= (1.0)) {
                    var33 = 1.78188169;
                } else {
                    var33 = 0.566924751;
                }
            } else {
                if ((input[96]) >= (1.0)) {
                    var33 = 0.349662423;
                } else {
                    var33 = -1.03757751;
                }
            }
        } else {
            if ((input[93]) >= (1.0)) {
                if ((input[113]) >= (1.0)) {
                    var33 = 0.764051974;
                } else {
                    var33 = 0.259341598;
                }
            } else {
                if ((input[38]) >= (1.0)) {
                    var33 = 0.287566304;
                } else {
                    var33 = -0.067325376;
                }
            }
        }
        double var34;
        if ((input[81]) >= (1.0)) {
            if ((input[85]) >= (1.0)) {
                if ((input[88]) >= (1.0)) {
                    var34 = 1.42572951;
                } else {
                    var34 = 0.765228093;
                }
            } else {
                if ((input[82]) >= (1.0)) {
                    var34 = 0.31885764;
                } else {
                    var34 = -0.177569345;
                }
            }
        } else {
            if ((input[64]) >= (1.0)) {
                if ((input[60]) >= (1.0)) {
                    var34 = 0.727972925;
                } else {
                    var34 = -0.237804174;
                }
            } else {
                if ((input[49]) >= (1.0)) {
                    var34 = 0.296841323;
                } else {
                    var34 = -0.0749530643;
                }
            }
        }
        double var35;
        if ((input[121]) >= (1.0)) {
            if ((input[124]) >= (1.0)) {
                if ((input[72]) >= (1.0)) {
                    var35 = 1.88464093;
                } else {
                    var35 = 0.613015771;
                }
            } else {
                if ((input[93]) >= (1.0)) {
                    var35 = 1.46293652;
                } else {
                    var35 = 0.11075367;
                }
            }
        } else {
            if ((input[16]) >= (1.0)) {
                if ((input[26]) >= (1.0)) {
                    var35 = 0.873805463;
                } else {
                    var35 = 0.00252185971;
                }
            } else {
                if ((input[104]) >= (1.0)) {
                    var35 = 0.418689013;
                } else {
                    var35 = -0.067111358;
                }
            }
        }
        double var36;
        if ((input[94]) >= (1.0)) {
            if ((input[92]) >= (1.0)) {
                if ((input[114]) >= (1.0)) {
                    var36 = 1.94826508;
                } else {
                    var36 = 0.606986225;
                }
            } else {
                if ((input[84]) >= (1.0)) {
                    var36 = 0.88319397;
                } else {
                    var36 = 0.130106121;
                }
            }
        } else {
            if ((input[18]) >= (1.0)) {
                if ((input[28]) >= (1.0)) {
                    var36 = 0.92719239;
                } else {
                    var36 = -0.0210949611;
                }
            } else {
                if ((input[56]) >= (1.0)) {
                    var36 = 0.290426493;
                } else {
                    var36 = -0.074261494;
                }
            }
        }
        double var37;
        if ((input[69]) >= (1.0)) {
            if ((input[59]) >= (1.0)) {
                if ((input[49]) >= (1.0)) {
                    var37 = 1.02917194;
                } else {
                    var37 = 0.542015672;
                }
            } else {
                if ((input[79]) >= (1.0)) {
                    var37 = 0.472127527;
                } else {
                    var37 = -1.39640665;
                }
            }
        } else {
            if ((input[78]) >= (1.0)) {
                if ((input[68]) >= (1.0)) {
                    var37 = 0.629728079;
                } else {
                    var37 = -0.0777748749;
                }
            } else {
                if ((input[65]) >= (1.0)) {
                    var37 = 0.34013027;
                } else {
                    var37 = -0.0728732422;
                }
            }
        }
        double var38;
        if ((input[83]) >= (1.0)) {
            if ((input[73]) >= (1.0)) {
                if ((input[63]) >= (1.0)) {
                    var38 = 0.753134429;
                } else {
                    var38 = 0.459484637;
                }
            } else {
                if ((input[93]) >= (1.0)) {
                    var38 = 0.368719101;
                } else {
                    var38 = -1.18419087;
                }
            }
        } else {
            if ((input[14]) >= (1.0)) {
                if ((input[15]) >= (1.0)) {
                    var38 = 0.754239023;
                } else {
                    var38 = 0.0468736067;
                }
            } else {
                if ((input[70]) >= (1.0)) {
                    var38 = 0.324491441;
                } else {
                    var38 = -0.0734417886;
                }
            }
        }
        double var39;
        if ((input[99]) >= (1.0)) {
            if ((input[119]) >= (1.0)) {
                if ((input[60]) >= (1.0)) {
                    var39 = 2.27940989;
                } else {
                    var39 = 0.693667591;
                }
            } else {
                if ((input[79]) >= (1.0)) {
                    var39 = 0.672314763;
                } else {
                    var39 = 0.0318105482;
                }
            }
        } else {
            if ((input[106]) >= (1.0)) {
                if ((input[96]) >= (1.0)) {
                    var39 = 0.537728488;
                } else {
                    var39 = 0.134770826;
                }
            } else {
                if ((input[36]) >= (1.0)) {
                    var39 = 0.280286759;
                } else {
                    var39 = -0.0651668385;
                }
            }
        }
        double var40;
        if ((input[4]) >= (1.0)) {
            if ((input[0]) >= (1.0)) {
                if ((input[89]) >= (1.0)) {
                    var40 = 1.52982771;
                } else {
                    var40 = 0.557293773;
                }
            } else {
                if ((input[5]) >= (1.0)) {
                    var40 = 0.495592356;
                } else {
                    var40 = -0.00782033429;
                }
            }
        } else {
            if ((input[88]) >= (1.0)) {
                if ((input[78]) >= (1.0)) {
                    var40 = 0.544077158;
                } else {
                    var40 = 0.0674001798;
                }
            } else {
                if ((input[43]) >= (1.0)) {
                    var40 = 0.280730337;
                } else {
                    var40 = -0.0762939304;
                }
            }
        }
        double var41;
        if ((input[112]) >= (1.0)) {
            if ((input[114]) >= (1.0)) {
                if ((input[58]) >= (1.0)) {
                    var41 = 1.56307805;
                } else {
                    var41 = 0.608413756;
                }
            } else {
                if ((input[102]) >= (1.0)) {
                    var41 = 1.11333835;
                } else {
                    var41 = 0.104696825;
                }
            }
        } else {
            if ((input[124]) >= (1.0)) {
                if ((input[121]) >= (1.0)) {
                    var41 = 0.587385416;
                } else {
                    var41 = 0.147466183;
                }
            } else {
                if ((input[48]) >= (1.0)) {
                    var41 = 0.28063187;
                } else {
                    var41 = -0.064660646;
                }
            }
        }
        double var42;
        if ((input[108]) >= (1.0)) {
            if ((input[98]) >= (1.0)) {
                if ((input[77]) >= (1.0)) {
                    var42 = 1.74507427;
                } else {
                    var42 = 0.527466536;
                }
            } else {
                if ((input[118]) >= (1.0)) {
                    var42 = 0.370784998;
                } else {
                    var42 = -1.19209278;
                }
            }
        } else {
            if ((input[50]) >= (1.0)) {
                if ((input[52]) >= (1.0)) {
                    var42 = 0.84387511;
                } else {
                    var42 = -0.28199929;
                }
            } else {
                if ((input[53]) >= (1.0)) {
                    var42 = 0.326576233;
                } else {
                    var42 = -0.0672274455;
                }
            }
        }
        double var43;
        if ((input[102]) >= (1.0)) {
            if ((input[104]) >= (1.0)) {
                if ((input[72]) >= (1.0)) {
                    var43 = 1.85316813;
                } else {
                    var43 = 0.606618941;
                }
            } else {
                if ((input[118]) >= (1.0)) {
                    var43 = -3.65936065;
                } else {
                    var43 = 0.20929566;
                }
            }
        } else {
            if ((input[81]) >= (1.0)) {
                if ((input[85]) >= (1.0)) {
                    var43 = 0.746831715;
                } else {
                    var43 = 0.0316201635;
                }
            } else {
                if ((input[66]) >= (1.0)) {
                    var43 = 0.297330469;
                } else {
                    var43 = -0.0656012595;
                }
            }
        }
        double var44;
        if ((input[95]) >= (1.0)) {
            if ((input[91]) >= (1.0)) {
                if ((input[84]) >= (1.0)) {
                    var44 = 1.53620183;
                } else {
                    var44 = 0.562938511;
                }
            } else {
                if ((input[75]) >= (1.0)) {
                    var44 = 1.0701046;
                } else {
                    var44 = 0.143283129;
                }
            }
        } else {
            if ((input[71]) >= (1.0)) {
                if ((input[75]) >= (1.0)) {
                    var44 = 0.864191353;
                } else {
                    var44 = -0.0403004289;
                }
            } else {
                if ((input[39]) >= (1.0)) {
                    var44 = 0.272888362;
                } else {
                    var44 = -0.0693159029;
                }
            }
        }
        double var45;
        if ((input[12]) >= (1.0)) {
            if ((input[10]) >= (1.0)) {
                if ((input[11]) >= (1.0)) {
                    var45 = 1.14155805;
                } else {
                    var45 = 0.639529407;
                }
            } else {
                if ((input[11]) >= (1.0)) {
                    var45 = 0.57675451;
                } else {
                    var45 = -0.211548924;
                }
            }
        } else {
            if ((input[7]) >= (1.0)) {
                if ((input[1]) >= (1.0)) {
                    var45 = 0.56174475;
                } else {
                    var45 = 0.128358677;
                }
            } else {
                if ((input[38]) >= (1.0)) {
                    var45 = 0.265697896;
                } else {
                    var45 = -0.0821957588;
                }
            }
        }
        double var46;
        if ((input[33]) >= (1.0)) {
            if ((input[43]) >= (1.0)) {
                if ((input[23]) >= (1.0)) {
                    var46 = 1.23226798;
                } else {
                    var46 = 0.771625817;
                }
            } else {
                if ((input[23]) >= (1.0)) {
                    var46 = 0.765462637;
                } else {
                    var46 = -0.825993657;
                }
            }
        } else {
            if ((input[19]) >= (1.0)) {
                if ((input[29]) >= (1.0)) {
                    var46 = 0.928330839;
                } else {
                    var46 = -0.0279818662;
                }
            } else {
                if ((input[46]) >= (1.0)) {
                    var46 = 0.284991115;
                } else {
                    var46 = -0.0823499486;
                }
            }
        }
        double var47;
        if ((input[69]) >= (1.0)) {
            if ((input[59]) >= (1.0)) {
                if ((input[49]) >= (1.0)) {
                    var47 = 0.949440181;
                } else {
                    var47 = 0.507392287;
                }
            } else {
                if ((input[79]) >= (1.0)) {
                    var47 = 0.442582756;
                } else {
                    var47 = -1.23807275;
                }
            }
        } else {
            if ((input[65]) >= (1.0)) {
                if ((input[60]) >= (1.0)) {
                    var47 = 0.71968931;
                } else {
                    var47 = -0.273694724;
                }
            } else {
                if ((input[86]) >= (1.0)) {
                    var47 = 0.352776319;
                } else {
                    var47 = -0.0689574629;
                }
            }
        }
        double var48;
        if ((input[83]) >= (1.0)) {
            if ((input[73]) >= (1.0)) {
                if ((input[109]) >= (1.0)) {
                    var48 = 1.70030487;
                } else {
                    var48 = 0.541220963;
                }
            } else {
                if ((input[93]) >= (1.0)) {
                    var48 = 0.361804813;
                } else {
                    var48 = -1.07207131;
                }
            }
        } else {
            if ((input[114]) >= (1.0)) {
                if ((input[112]) >= (1.0)) {
                    var48 = 0.58987087;
                } else {
                    var48 = 0.162975788;
                }
            } else {
                if ((input[99]) >= (1.0)) {
                    var48 = 0.366102874;
                } else {
                    var48 = -0.0585605688;
                }
            }
        }
        double var49;
        if ((input[0]) >= (1.0)) {
            if ((input[1]) >= (1.0)) {
                if ((input[63]) >= (1.0)) {
                    var49 = 1.21768987;
                } else {
                    var49 = 0.496587127;
                }
            } else {
                if ((input[2]) >= (1.0)) {
                    var49 = 0.489020348;
                } else {
                    var49 = 0.00476996507;
                }
            }
        } else {
            if ((input[18]) >= (1.0)) {
                if ((input[28]) >= (1.0)) {
                    var49 = 0.844329536;
                } else {
                    var49 = -0.0117838038;
                }
            } else {
                if ((input[36]) >= (1.0)) {
                    var49 = 0.262900263;
                } else {
                    var49 = -0.0820070058;
                }
            }
        }
        double var50;
        if ((input[121]) >= (1.0)) {
            if ((input[124]) >= (1.0)) {
                if ((input[98]) >= (1.0)) {
                    var50 = 1.75047052;
                } else {
                    var50 = 0.545651317;
                }
            } else {
                if ((input[93]) >= (1.0)) {
                    var50 = 1.33212459;
                } else {
                    var50 = 0.149267659;
                }
            }
        } else {
            if ((input[106]) >= (1.0)) {
                if ((input[116]) >= (1.0)) {
                    var50 = 0.550896645;
                } else {
                    var50 = 0.216292381;
                }
            } else {
                if ((input[58]) >= (1.0)) {
                    var50 = 0.281528622;
                } else {
                    var50 = -0.0635458454;
                }
            }
        }
        double var51;
        if ((input[16]) >= (1.0)) {
            if ((input[26]) >= (1.0)) {
                if ((input[6]) >= (1.0)) {
                    var51 = 1.11926031;
                } else {
                    var51 = 0.675371349;
                }
            } else {
                if ((input[6]) >= (1.0)) {
                    var51 = 0.520742416;
                } else {
                    var51 = -0.209899828;
                }
            }
        } else {
            if ((input[107]) >= (1.0)) {
                if ((input[100]) >= (1.0)) {
                    var51 = 0.595281899;
                } else {
                    var51 = 0.186944708;
                }
            } else {
                if ((input[81]) >= (1.0)) {
                    var51 = 0.32289061;
                } else {
                    var51 = -0.0683569685;
                }
            }
        }
        double var52;
        if ((input[98]) >= (1.0)) {
            if ((input[118]) >= (1.0)) {
                if ((input[62]) >= (1.0)) {
                    var52 = 1.84999657;
                } else {
                    var52 = 0.654327095;
                }
            } else {
                if ((input[88]) >= (1.0)) {
                    var52 = 0.432903111;
                } else {
                    var52 = -0.254758477;
                }
            }
        } else {
            if ((input[13]) >= (1.0)) {
                if ((input[23]) >= (1.0)) {
                    var52 = 0.871244848;
                } else {
                    var52 = -0.00999652687;
                }
            } else {
                if ((input[63]) >= (1.0)) {
                    var52 = 0.296992332;
                } else {
                    var52 = -0.0722619742;
                }
            }
        }
        double var53;
        if ((input[91]) >= (1.0)) {
            if ((input[95]) >= (1.0)) {
                if ((input[67]) >= (1.0)) {
                    var53 = 1.45485222;
                } else {
                    var53 = 0.532912672;
                }
            } else {
                if ((input[81]) >= (1.0)) {
                    var53 = 1.03250492;
                } else {
                    var53 = 0.143514052;
                }
            }
        } else {
            if ((input[109]) >= (1.0)) {
                if ((input[71]) >= (1.0)) {
                    var53 = 1.4501189;
                } else {
                    var53 = 0.369414061;
                }
            } else {
                if ((input[24]) >= (1.0)) {
                    var53 = 0.253332436;
                } else {
                    var53 = -0.0645012781;
                }
            }
        }
        double var54;
        if ((input[51]) >= (1.0)) {
            if ((input[50]) >= (1.0)) {
                if ((input[52]) >= (1.0)) {
                    var54 = 1.18186545;
                } else {
                    var54 = 0.524550796;
                }
            } else {
                if ((input[52]) >= (1.0)) {
                    var54 = 0.490437329;
                } else {
                    var54 = -1.09953654;
                }
            }
        } else {
            if ((input[58]) >= (1.0)) {
                if ((input[48]) >= (1.0)) {
                    var54 = 0.78783685;
                } else {
                    var54 = -0.156908408;
                }
            } else {
                if ((input[64]) >= (1.0)) {
                    var54 = 0.363722056;
                } else {
                    var54 = -0.0768111199;
                }
            }
        }
        double var55;
        if ((input[71]) >= (1.0)) {
            if ((input[72]) >= (1.0)) {
                if ((input[70]) >= (1.0)) {
                    var55 = 0.823155403;
                } else {
                    var55 = 0.325859696;
                }
            } else {
                if ((input[70]) >= (1.0)) {
                    var55 = 0.292005986;
                } else {
                    var55 = -1.26424146;
                }
            }
        } else {
            if ((input[44]) >= (1.0)) {
                if ((input[45]) >= (1.0)) {
                    var55 = 0.919914186;
                } else {
                    var55 = -0.183309585;
                }
            } else {
                if ((input[59]) >= (1.0)) {
                    var55 = 0.279393286;
                } else {
                    var55 = -0.0751199275;
                }
            }
        }
        double var56;
        if ((input[103]) >= (1.0)) {
            if ((input[93]) >= (1.0)) {
                if ((input[113]) >= (1.0)) {
                    var56 = 0.750609457;
                } else {
                    var56 = 0.400263608;
                }
            } else {
                if ((input[113]) >= (1.0)) {
                    var56 = 0.268644601;
                } else {
                    var56 = -1.13624692;
                }
            }
        } else {
            if ((input[124]) >= (1.0)) {
                if ((input[121]) >= (1.0)) {
                    var56 = 0.526737094;
                } else {
                    var56 = 0.187093779;
                }
            } else {
                if ((input[33]) >= (1.0)) {
                    var56 = 0.262873083;
                } else {
                    var56 = -0.0632670447;
                }
            }
        }
        double var57;
        if ((input[111]) >= (1.0)) {
            if ((input[115]) >= (1.0)) {
                if ((input[72]) >= (1.0)) {
                    var57 = 1.52800429;
                } else {
                    var57 = 0.547513545;
                }
            } else {
                if ((input[101]) >= (1.0)) {
                    var57 = 0.973933876;
                } else {
                    var57 = 0.156638607;
                }
            }
        } else {
            if ((input[76]) >= (1.0)) {
                if ((input[66]) >= (1.0)) {
                    var57 = 0.568672121;
                } else {
                    var57 = -0.0368222408;
                }
            } else {
                if ((input[63]) >= (1.0)) {
                    var57 = 0.289318174;
                } else {
                    var57 = -0.0641815886;
                }
            }
        }
        double var58;
        if ((input[89]) >= (1.0)) {
            if ((input[79]) >= (1.0)) {
                if ((input[69]) >= (1.0)) {
                    var58 = 0.751568973;
                } else {
                    var58 = 0.412103385;
                }
            } else {
                if ((input[99]) >= (1.0)) {
                    var58 = 0.298531234;
                } else {
                    var58 = -1.06702173;
                }
            }
        } else {
            if ((input[100]) >= (1.0)) {
                if ((input[102]) >= (1.0)) {
                    var58 = 0.496199608;
                } else {
                    var58 = 0.10346856;
                }
            } else {
                if ((input[78]) >= (1.0)) {
                    var58 = 0.309427083;
                } else {
                    var58 = -0.0606682301;
                }
            }
        }
        double var59;
        if ((input[14]) >= (1.0)) {
            if ((input[10]) >= (1.0)) {
                if ((input[12]) >= (1.0)) {
                    var59 = 1.04918158;
                } else {
                    var59 = 0.604892075;
                }
            } else {
                if ((input[15]) >= (1.0)) {
                    var59 = 0.538098276;
                } else {
                    var59 = -0.182410061;
                }
            }
        } else {
            if ((input[2]) >= (1.0)) {
                if ((input[1]) >= (1.0)) {
                    var59 = 0.523582518;
                } else {
                    var59 = 0.141763851;
                }
            } else {
                if ((input[29]) >= (1.0)) {
                    var59 = 0.258682281;
                } else {
                    var59 = -0.0823664367;
                }
            }
        }
        double var60;
        if ((input[84]) >= (1.0)) {
            if ((input[85]) >= (1.0)) {
                if ((input[80]) >= (1.0)) {
                    var60 = 0.697905064;
                } else {
                    var60 = 0.36914283;
                }
            } else {
                if ((input[80]) >= (1.0)) {
                    var60 = 0.279678822;
                } else {
                    var60 = -1.41395187;
                }
            }
        } else {
            if ((input[71]) >= (1.0)) {
                if ((input[72]) >= (1.0)) {
                    var60 = 0.569447637;
                } else {
                    var60 = -0.18272391;
                }
            } else {
                if ((input[56]) >= (1.0)) {
                    var60 = 0.272987396;
                } else {
                    var60 = -0.0692780837;
                }
            }
        }
        double var61;
        if ((input[108]) >= (1.0)) {
            if ((input[98]) >= (1.0)) {
                if ((input[77]) >= (1.0)) {
                    var61 = 1.50894606;
                } else {
                    var61 = 0.490083903;
                }
            } else {
                if ((input[118]) >= (1.0)) {
                    var61 = 0.384575129;
                } else {
                    var61 = -1.06371272;
                }
            }
        } else {
            if ((input[95]) >= (1.0)) {
                if ((input[46]) >= (1.0)) {
                    var61 = 1.10180402;
                } else {
                    var61 = 0.340723068;
                }
            } else {
                if ((input[39]) >= (1.0)) {
                    var61 = 0.255630463;
                } else {
                    var61 = -0.0616341308;
                }
            }
        }
        double var62;
        if ((input[106]) >= (1.0)) {
            if ((input[96]) >= (1.0)) {
                if ((input[55]) >= (1.0)) {
                    var62 = 1.34936166;
                } else {
                    var62 = 0.487026423;
                }
            } else {
                if ((input[116]) >= (1.0)) {
                    var62 = 0.373174995;
                } else {
                    var62 = -0.919563413;
                }
            }
        } else {
            if ((input[68]) >= (1.0)) {
                if ((input[58]) >= (1.0)) {
                    var62 = 0.636793375;
                } else {
                    var62 = -0.120950304;
                }
            } else {
                if ((input[67]) >= (1.0)) {
                    var62 = 0.314159364;
                } else {
                    var62 = -0.0648633465;
                }
            }
        }
        double var63;
        if ((input[4]) >= (1.0)) {
            if ((input[5]) >= (1.0)) {
                if ((input[98]) >= (1.0)) {
                    var63 = 1.61809599;
                } else {
                    var63 = 0.464150667;
                }
            } else {
                if ((input[0]) >= (1.0)) {
                    var63 = 0.462918997;
                } else {
                    var63 = 0.0145005947;
                }
            }
        } else {
            if ((input[13]) >= (1.0)) {
                if ((input[23]) >= (1.0)) {
                    var63 = 0.810459137;
                } else {
                    var63 = -0.000504165131;
                }
            } else {
                if ((input[38]) >= (1.0)) {
                    var63 = 0.252766877;
                } else {
                    var63 = -0.0794864744;
                }
            }
        }
        double var64;
        if ((input[112]) >= (1.0)) {
            if ((input[114]) >= (1.0)) {
                if ((input[106]) >= (1.0)) {
                    var64 = 1.24151754;
                } else {
                    var64 = 0.505262077;
                }
            } else {
                if ((input[102]) >= (1.0)) {
                    var64 = 1.02108598;
                } else {
                    var64 = 0.162597522;
                }
            }
        } else {
            if ((input[19]) >= (1.0)) {
                if ((input[29]) >= (1.0)) {
                    var64 = 0.83271724;
                } else {
                    var64 = -0.00806740019;
                }
            } else {
                if ((input[36]) >= (1.0)) {
                    var64 = 0.256141782;
                } else {
                    var64 = -0.0704449862;
                }
            }
        }
        double var65;
        if ((input[86]) >= (1.0)) {
            if ((input[76]) >= (1.0)) {
                if ((input[124]) >= (1.0)) {
                    var65 = 1.60980117;
                } else {
                    var65 = 0.506551504;
                }
            } else {
                if ((input[96]) >= (1.0)) {
                    var65 = 0.295239538;
                } else {
                    var65 = -0.88107264;
                }
            }
        } else {
            if ((input[51]) >= (1.0)) {
                if ((input[50]) >= (1.0)) {
                    var65 = 0.768732369;
                } else {
                    var65 = -0.222835824;
                }
            } else {
                if ((input[69]) >= (1.0)) {
                    var65 = 0.297056139;
                } else {
                    var65 = -0.0691538826;
                }
            }
        }
        double var66;
        if ((input[83]) >= (1.0)) {
            if ((input[73]) >= (1.0)) {
                if ((input[125]) >= (1.0)) {
                    var66 = 1.59391975;
                } else {
                    var66 = 0.508682489;
                }
            } else {
                if ((input[93]) >= (1.0)) {
                    var66 = 0.344083309;
                } else {
                    var66 = -0.904521942;
                }
            }
        } else {
            if ((input[121]) >= (1.0)) {
                if ((input[120]) >= (1.0)) {
                    var66 = 0.45742178;
                } else {
                    var66 = 0.0916693285;
                }
            } else {
                if ((input[28]) >= (1.0)) {
                    var66 = 0.245667741;
                } else {
                    var66 = -0.0644160509;
                }
            }
        }
        double var67;
        if ((input[91]) >= (1.0)) {
            if ((input[81]) >= (1.0)) {
                if ((input[85]) >= (1.0)) {
                    var67 = 1.67653978;
                } else {
                    var67 = 0.956315041;
                }
            } else {
                if ((input[90]) >= (1.0)) {
                    var67 = 0.437598556;
                } else {
                    var67 = 0.0349591784;
                }
            }
        } else {
            if ((input[109]) >= (1.0)) {
                if ((input[73]) >= (1.0)) {
                    var67 = 1.48849165;
                } else {
                    var67 = 0.366078615;
                }
            } else {
                if ((input[20]) >= (1.0)) {
                    var67 = 0.246262193;
                } else {
                    var67 = -0.0632204935;
                }
            }
        }
        double var68;
        if ((input[104]) >= (1.0)) {
            if ((input[102]) >= (1.0)) {
                if ((input[87]) >= (1.0)) {
                    var68 = 1.8137846;
                } else {
                    var68 = 0.522391498;
                }
            } else {
                if ((input[73]) >= (1.0)) {
                    var68 = 1.40387893;
                } else {
                    var68 = 0.202363849;
                }
            }
        } else {
            if ((input[16]) >= (1.0)) {
                if ((input[26]) >= (1.0)) {
                    var68 = 0.730966926;
                } else {
                    var68 = 0.0238897521;
                }
            } else {
                if ((input[32]) >= (1.0)) {
                    var68 = 0.259235203;
                } else {
                    var68 = -0.0691849291;
                }
            }
        }
        double var69;
        if ((input[84]) >= (1.0)) {
            if ((input[85]) >= (1.0)) {
                if ((input[80]) >= (1.0)) {
                    var69 = 0.655450106;
                } else {
                    var69 = 0.356595308;
                }
            } else {
                if ((input[80]) >= (1.0)) {
                    var69 = 0.275910795;
                } else {
                    var69 = -1.25931573;
                }
            }
        } else {
            if ((input[78]) >= (1.0)) {
                if ((input[68]) >= (1.0)) {
                    var69 = 0.575777173;
                } else {
                    var69 = -0.0702185407;
                }
            } else {
                if ((input[66]) >= (1.0)) {
                    var69 = 0.277081251;
                } else {
                    var69 = -0.0652744919;
                }
            }
        }
        double var70;
        if ((input[18]) >= (1.0)) {
            if ((input[28]) >= (1.0)) {
                if ((input[38]) >= (1.0)) {
                    var70 = 1.04940879;
                } else {
                    var70 = 0.664115965;
                }
            } else {
                if ((input[8]) >= (1.0)) {
                    var70 = 0.584838629;
                } else {
                    var70 = -0.259669095;
                }
            }
        } else {
            if ((input[2]) >= (1.0)) {
                if ((input[1]) >= (1.0)) {
                    var70 = 0.485185355;
                } else {
                    var70 = 0.144110993;
                }
            } else {
                if ((input[40]) >= (1.0)) {
                    var70 = 0.260369629;
                } else {
                    var70 = -0.0784993172;
                }
            }
        }
        double var71;
        if ((input[103]) >= (1.0)) {
            if ((input[93]) >= (1.0)) {
                if ((input[113]) >= (1.0)) {
                    var71 = 0.708756983;
                } else {
                    var71 = 0.374177516;
                }
            } else {
                if ((input[113]) >= (1.0)) {
                    var71 = 0.281442761;
                } else {
                    var71 = -1.01770198;
                }
            }
        } else {
            if ((input[61]) >= (1.0)) {
                if ((input[62]) >= (1.0)) {
                    var71 = 0.6646685;
                } else {
                    var71 = -0.247083426;
                }
            } else {
                if ((input[53]) >= (1.0)) {
                    var71 = 0.30270502;
                } else {
                    var71 = -0.0638039187;
                }
            }
        }
        double var72;
        if ((input[108]) >= (1.0)) {
            if ((input[109]) >= (1.0)) {
                if ((input[15]) >= (1.0)) {
                    var72 = 3.31491399;
                } else {
                    var72 = 1.16483581;
                }
            } else {
                if ((input[98]) >= (1.0)) {
                    var72 = 0.48740077;
                } else {
                    var72 = 0.0816315934;
                }
            }
        } else {
            if ((input[49]) >= (1.0)) {
                if ((input[39]) >= (1.0)) {
                    var72 = 0.815870941;
                } else {
                    var72 = -0.120527625;
                }
            } else {
                if ((input[42]) >= (1.0)) {
                    var72 = 0.306755394;
                } else {
                    var72 = -0.0651693568;
                }
            }
        }
        double var73;
        if ((input[12]) >= (1.0)) {
            if ((input[10]) >= (1.0)) {
                if ((input[79]) >= (1.0)) {
                    var73 = 1.67812717;
                } else {
                    var73 = 0.678151309;
                }
            } else {
                if ((input[11]) >= (1.0)) {
                    var73 = 0.545477331;
                } else {
                    var73 = -0.179574132;
                }
            }
        } else {
            if ((input[114]) >= (1.0)) {
                if ((input[110]) >= (1.0)) {
                    var73 = 0.465186805;
                } else {
                    var73 = 0.0913005546;
                }
            } else {
                if ((input[5]) >= (1.0)) {
                    var73 = 0.234027252;
                } else {
                    var73 = -0.070668377;
                }
            }
        }
        double var74;
        if ((input[122]) >= (1.0)) {
            if ((input[80]) >= (1.0)) {
                if ((input[107]) >= (1.0)) {
                    var74 = -3.40945435;
                } else {
                    var74 = 1.37080145;
                }
            } else {
                if ((input[121]) >= (1.0)) {
                    var74 = 0.430492252;
                } else {
                    var74 = 0.0701127723;
                }
            }
        } else {
            if ((input[89]) >= (1.0)) {
                if ((input[79]) >= (1.0)) {
                    var74 = 0.511524439;
                } else {
                    var74 = 0.075566493;
                }
            } else {
                if ((input[75]) >= (1.0)) {
                    var74 = 0.284596592;
                } else {
                    var74 = -0.0602000318;
                }
            }
        }
        double var75;
        if ((input[51]) >= (1.0)) {
            if ((input[52]) >= (1.0)) {
                if ((input[50]) >= (1.0)) {
                    var75 = 1.03574038;
                } else {
                    var75 = 0.500786245;
                }
            } else {
                if ((input[50]) >= (1.0)) {
                    var75 = 0.435258448;
                } else {
                    var75 = -0.924505234;
                }
            }
        } else {
            if ((input[43]) >= (1.0)) {
                if ((input[33]) >= (1.0)) {
                    var75 = 0.867778778;
                } else {
                    var75 = -0.161533043;
                }
            } else {
                if ((input[41]) >= (1.0)) {
                    var75 = 0.311665505;
                } else {
                    var75 = -0.0705827102;
                }
            }
        }
        double var76;
        if ((input[106]) >= (1.0)) {
            if ((input[116]) >= (1.0)) {
                if ((input[71]) >= (1.0)) {
                    var76 = 1.43071759;
                } else {
                    var76 = 0.496534079;
                }
            } else {
                if ((input[96]) >= (1.0)) {
                    var76 = 0.345774114;
                } else {
                    var76 = -0.856513143;
                }
            }
        } else {
            if ((input[97]) >= (1.0)) {
                if ((input[87]) >= (1.0)) {
                    var76 = 0.958976865;
                } else {
                    var76 = 0.328843027;
                }
            } else {
                if ((input[25]) >= (1.0)) {
                    var76 = 0.242017969;
                } else {
                    var76 = -0.0612994544;
                }
            }
        }
        double var77;
        if ((input[63]) >= (1.0)) {
            if ((input[53]) >= (1.0)) {
                if ((input[73]) >= (1.0)) {
                    var77 = 0.868578076;
                } else {
                    var77 = 0.462250561;
                }
            } else {
                if ((input[73]) >= (1.0)) {
                    var77 = 0.346646011;
                } else {
                    var77 = -1.04242599;
                }
            }
        } else {
            if ((input[84]) >= (1.0)) {
                if ((input[85]) >= (1.0)) {
                    var77 = 0.502122223;
                } else {
                    var77 = -0.0736886486;
                }
            } else {
                if ((input[46]) >= (1.0)) {
                    var77 = 0.254634023;
                } else {
                    var77 = -0.0682761744;
                }
            }
        }
        double var78;
        if ((input[102]) >= (1.0)) {
            if ((input[72]) >= (1.0)) {
                if ((input[71]) >= (1.0)) {
                    var78 = 1.64889586;
                } else {
                    var78 = 0.802670598;
                }
            } else {
                if ((input[124]) >= (1.0)) {
                    var78 = 1.58119333;
                } else {
                    var78 = 0.34925434;
                }
            }
        } else {
            if ((input[88]) >= (1.0)) {
                if ((input[78]) >= (1.0)) {
                    var78 = 0.499282986;
                } else {
                    var78 = 0.069241859;
                }
            } else {
                if ((input[64]) >= (1.0)) {
                    var78 = 0.268233776;
                } else {
                    var78 = -0.0596958287;
                }
            }
        }
        double var79;
        if ((input[71]) >= (1.0)) {
            if ((input[70]) >= (1.0)) {
                if ((input[72]) >= (1.0)) {
                    var79 = 0.711595237;
                } else {
                    var79 = 0.338290364;
                }
            } else {
                if ((input[72]) >= (1.0)) {
                    var79 = 0.289436042;
                } else {
                    var79 = -1.09810412;
                }
            }
        } else {
            if ((input[86]) >= (1.0)) {
                if ((input[76]) >= (1.0)) {
                    var79 = 0.491221249;
                } else {
                    var79 = 0.0894673094;
                }
            } else {
                if ((input[48]) >= (1.0)) {
                    var79 = 0.256320804;
                } else {
                    var79 = -0.0668605193;
                }
            }
        }
        double var80;
        if ((input[0]) >= (1.0)) {
            if ((input[1]) >= (1.0)) {
                if ((input[79]) >= (1.0)) {
                    var80 = 1.28177059;
                } else {
                    var80 = 0.424079329;
                }
            } else {
                if ((input[2]) >= (1.0)) {
                    var80 = 0.435399026;
                } else {
                    var80 = 0.0382340066;
                }
            }
        } else {
            if ((input[69]) >= (1.0)) {
                if ((input[59]) >= (1.0)) {
                    var80 = 0.59382385;
                } else {
                    var80 = -0.09746553;
                }
            } else {
                if ((input[103]) >= (1.0)) {
                    var80 = 0.347113788;
                } else {
                    var80 = -0.0660473779;
                }
            }
        }
        double var81;
        if ((input[14]) >= (1.0)) {
            if ((input[10]) >= (1.0)) {
                if ((input[95]) >= (1.0)) {
                    var81 = 1.70983791;
                } else {
                    var81 = 0.647651792;
                }
            } else {
                if ((input[15]) >= (1.0)) {
                    var81 = 0.509621084;
                } else {
                    var81 = -0.151230603;
                }
            }
        } else {
            if ((input[109]) >= (1.0)) {
                if ((input[99]) >= (1.0)) {
                    var81 = 0.476234108;
                } else {
                    var81 = 0.13179861;
                }
            } else {
                if ((input[22]) >= (1.0)) {
                    var81 = 0.238870963;
                } else {
                    var81 = -0.0688139051;
                }
            }
        }
        double var82;
        if ((input[124]) >= (1.0)) {
            if ((input[88]) >= (1.0)) {
                if ((input[123]) >= (1.0)) {
                    var82 = 1.55858862;
                } else {
                    var82 = 0.660422802;
                }
            } else {
                if ((input[89]) >= (1.0)) {
                    var82 = 1.2915982;
                } else {
                    var82 = 0.330825001;
                }
            }
        } else {
            if ((input[112]) >= (1.0)) {
                if ((input[68]) >= (1.0)) {
                    var82 = 1.18888736;
                } else {
                    var82 = 0.347649127;
                }
            } else {
                if ((input[61]) >= (1.0)) {
                    var82 = 0.265805274;
                } else {
                    var82 = -0.0587156899;
                }
            }
        }
        double var83;
        if ((input[104]) >= (1.0)) {
            if ((input[70]) >= (1.0)) {
                if ((input[90]) >= (1.0)) {
                    var83 = 4.1828804;
                } else {
                    var83 = 1.18711555;
                }
            } else {
                if ((input[5]) >= (1.0)) {
                    var83 = 0.880739033;
                } else {
                    var83 = 0.325155497;
                }
            }
        } else {
            if ((input[24]) >= (1.0)) {
                if ((input[20]) >= (1.0)) {
                    var83 = 0.875810266;
                } else {
                    var83 = -0.044527825;
                }
            } else {
                if ((input[33]) >= (1.0)) {
                    var83 = 0.2493999;
                } else {
                    var83 = -0.0669148415;
                }
            }
        }
        double var84;
        if ((input[90]) >= (1.0)) {
            if ((input[80]) >= (1.0)) {
                if ((input[76]) >= (1.0)) {
                    var84 = 0.674036562;
                } else {
                    var84 = 1.21377552;
                }
            } else {
                if ((input[46]) >= (1.0)) {
                    var84 = 1.07003379;
                } else {
                    var84 = 0.29933852;
                }
            }
        } else {
            if ((input[108]) >= (1.0)) {
                if ((input[118]) >= (1.0)) {
                    var84 = 0.507909417;
                } else {
                    var84 = 0.190020844;
                }
            } else {
                if ((input[49]) >= (1.0)) {
                    var84 = 0.250732958;
                } else {
                    var84 = -0.0589196049;
                }
            }
        }
        double var85;
        if ((input[68]) >= (1.0)) {
            if ((input[58]) >= (1.0)) {
                if ((input[48]) >= (1.0)) {
                    var85 = 0.879531324;
                } else {
                    var85 = 0.473828465;
                }
            } else {
                if ((input[78]) >= (1.0)) {
                    var85 = 0.392518133;
                } else {
                    var85 = -1.22204518;
                }
            }
        } else {
            if ((input[19]) >= (1.0)) {
                if ((input[29]) >= (1.0)) {
                    var85 = 0.764497936;
                } else {
                    var85 = -0.00174385204;
                }
            } else {
                if ((input[31]) >= (1.0)) {
                    var85 = 0.254083633;
                } else {
                    var85 = -0.0732839778;
                }
            }
        }
        double var86;
        if ((input[63]) >= (1.0)) {
            if ((input[53]) >= (1.0)) {
                if ((input[43]) >= (1.0)) {
                    var86 = 0.844233334;
                } else {
                    var86 = 0.435104817;
                }
            } else {
                if ((input[73]) >= (1.0)) {
                    var86 = 0.334888339;
                } else {
                    var86 = -0.913698614;
                }
            }
        } else {
            if ((input[55]) >= (1.0)) {
                if ((input[54]) >= (1.0)) {
                    var86 = 0.735381246;
                } else {
                    var86 = -0.210475311;
                }
            } else {
                if ((input[46]) >= (1.0)) {
                    var86 = 0.298170477;
                } else {
                    var86 = -0.0692902133;
                }
            }
        }
        double var87;
        if ((input[65]) >= (1.0)) {
            if ((input[60]) >= (1.0)) {
                if ((input[61]) >= (1.0)) {
                    var87 = 0.770167947;
                } else {
                    var87 = 0.471412271;
                }
            } else {
                if ((input[64]) >= (1.0)) {
                    var87 = 0.427584022;
                } else {
                    var87 = -1.14992285;
                }
            }
        } else {
            if ((input[66]) >= (1.0)) {
                if ((input[56]) >= (1.0)) {
                    var87 = 0.620683134;
                } else {
                    var87 = -0.137292787;
                }
            } else {
                if ((input[69]) >= (1.0)) {
                    var87 = 0.305472642;
                } else {
                    var87 = -0.0665002838;
                }
            }
        }
        double var88;
        if ((input[82]) >= (1.0)) {
            if ((input[80]) >= (1.0)) {
                if ((input[121]) >= (1.0)) {
                    var88 = 1.55174887;
                } else {
                    var88 = 0.515496016;
                }
            } else {
                if ((input[81]) >= (1.0)) {
                    var88 = 0.392722666;
                } else {
                    var88 = -1.39549577;
                }
            }
        } else {
            if ((input[44]) >= (1.0)) {
                if ((input[40]) >= (1.0)) {
                    var88 = 0.865304649;
                } else {
                    var88 = -0.178860292;
                }
            } else {
                if ((input[71]) >= (1.0)) {
                    var88 = 0.281092316;
                } else {
                    var88 = -0.0659518242;
                }
            }
        }
        double var89;
        if ((input[7]) >= (1.0)) {
            if ((input[1]) >= (1.0)) {
                if ((input[120]) >= (1.0)) {
                    var89 = 1.41304362;
                } else {
                    var89 = 0.4411529;
                }
            } else {
                if ((input[4]) >= (1.0)) {
                    var89 = 0.438444227;
                } else {
                    var89 = 0.0257672761;
                }
            }
        } else {
            if ((input[13]) >= (1.0)) {
                if ((input[3]) >= (1.0)) {
                    var89 = 0.751269519;
                } else {
                    var89 = 0.00939015206;
                }
            } else {
                if ((input[114]) >= (1.0)) {
                    var89 = 0.35146156;
                } else {
                    var89 = -0.0695619807;
                }
            }
        }
        double var90;
        if ((input[106]) >= (1.0)) {
            if ((input[116]) >= (1.0)) {
                if ((input[59]) >= (1.0)) {
                    var90 = 1.31014192;
                } else {
                    var90 = 0.480983973;
                }
            } else {
                if ((input[96]) >= (1.0)) {
                    var90 = 0.332581371;
                } else {
                    var90 = -0.800366223;
                }
            }
        } else {
            if ((input[121]) >= (1.0)) {
                if ((input[75]) >= (1.0)) {
                    var90 = 1.21004999;
                } else {
                    var90 = 0.33009994;
                }
            } else {
                if ((input[83]) >= (1.0)) {
                    var90 = 0.325036675;
                } else {
                    var90 = -0.0536759309;
                }
            }
        }
        double var91;
        if ((input[18]) >= (1.0)) {
            if ((input[28]) >= (1.0)) {
                if ((input[38]) >= (1.0)) {
                    var91 = 0.974392414;
                } else {
                    var91 = 0.623274028;
                }
            } else {
                if ((input[8]) >= (1.0)) {
                    var91 = 0.5463925;
                } else {
                    var91 = -0.224919751;
                }
            }
        } else {
            if ((input[89]) >= (1.0)) {
                if ((input[79]) >= (1.0)) {
                    var91 = 0.495336831;
                } else {
                    var91 = 0.0680837855;
                }
            } else {
                if ((input[36]) >= (1.0)) {
                    var91 = 0.24805212;
                } else {
                    var91 = -0.0695778131;
                }
            }
        }
        double var92;
        if ((input[94]) >= (1.0)) {
            if ((input[110]) >= (1.0)) {
                if ((input[88]) >= (1.0)) {
                    var92 = -0.48625946;
                } else {
                    var92 = 1.53461659;
                }
            } else {
                if ((input[84]) >= (1.0)) {
                    var92 = 0.931747854;
                } else {
                    var92 = 0.305941075;
                }
            }
        } else {
            if ((input[109]) >= (1.0)) {
                if ((input[119]) >= (1.0)) {
                    var92 = 0.505058467;
                } else {
                    var92 = 0.164907053;
                }
            } else {
                if ((input[12]) >= (1.0)) {
                    var92 = 0.225203186;
                } else {
                    var92 = -0.0601726137;
                }
            }
        }
        double var93;
        if ((input[100]) >= (1.0)) {
            if ((input[70]) >= (1.0)) {
                if ((input[30]) >= (1.0)) {
                    var93 = 3.27017975;
                } else {
                    var93 = 1.18380952;
                }
            } else {
                if ((input[66]) >= (1.0)) {
                    var93 = 1.15791595;
                } else {
                    var93 = 0.32637623;
                }
            }
        } else {
            if ((input[16]) >= (1.0)) {
                if ((input[26]) >= (1.0)) {
                    var93 = 0.674847186;
                } else {
                    var93 = 0.0292118788;
                }
            } else {
                if ((input[32]) >= (1.0)) {
                    var93 = 0.246264502;
                } else {
                    var93 = -0.0655602664;
                }
            }
        }
        double var94;
        if ((input[76]) >= (1.0)) {
            if ((input[66]) >= (1.0)) {
                if ((input[99]) >= (1.0)) {
                    var94 = 1.68328345;
                } else {
                    var94 = 0.511779845;
                }
            } else {
                if ((input[86]) >= (1.0)) {
                    var94 = 0.400390863;
                } else {
                    var94 = -1.21551144;
                }
            }
        } else {
            if ((input[75]) >= (1.0)) {
                if ((input[70]) >= (1.0)) {
                    var94 = 0.555010498;
                } else {
                    var94 = -0.189490542;
                }
            } else {
                if ((input[88]) >= (1.0)) {
                    var94 = 0.316934317;
                } else {
                    var94 = -0.0602254458;
                }
            }
        }
        double var95;
        if ((input[103]) >= (1.0)) {
            if ((input[93]) >= (1.0)) {
                if ((input[79]) >= (1.0)) {
                    var95 = 1.62541568;
                } else {
                    var95 = 0.471178681;
                }
            } else {
                if ((input[113]) >= (1.0)) {
                    var95 = 0.282289118;
                } else {
                    var95 = -0.932428062;
                }
            }
        } else {
            if ((input[124]) >= (1.0)) {
                if ((input[86]) >= (1.0)) {
                    var95 = 1.25859213;
                } else {
                    var95 = 0.32572338;
                }
            } else {
                if ((input[51]) >= (1.0)) {
                    var95 = 0.250336647;
                } else {
                    var95 = -0.0574957393;
                }
            }
        }
        double var96;
        if ((input[115]) >= (1.0)) {
            if ((input[68]) >= (1.0)) {
                if ((input[48]) >= (1.0)) {
                    var96 = 1.95135403;
                } else {
                    var96 = 1.07825124;
                }
            } else {
                if ((input[59]) >= (1.0)) {
                    var96 = 1.12325037;
                } else {
                    var96 = 0.318947732;
                }
            }
        } else {
            if ((input[65]) >= (1.0)) {
                if ((input[60]) >= (1.0)) {
                    var96 = 0.588809431;
                } else {
                    var96 = -0.175925404;
                }
            } else {
                if ((input[48]) >= (1.0)) {
                    var96 = 0.247143224;
                } else {
                    var96 = -0.0628808662;
                }
            }
        }
        double var97;
        if ((input[0]) >= (1.0)) {
            if ((input[1]) >= (1.0)) {
                if ((input[98]) >= (1.0)) {
                    var97 = 1.23293531;
                } else {
                    var97 = 0.395581573;
                }
            } else {
                if ((input[2]) >= (1.0)) {
                    var97 = 0.417267323;
                } else {
                    var97 = 0.0469430052;
                }
            }
        } else {
            if ((input[27]) >= (1.0)) {
                if ((input[21]) >= (1.0)) {
                    var97 = 0.857854784;
                } else {
                    var97 = -0.0446863994;
                }
            } else {
                if ((input[63]) >= (1.0)) {
                    var97 = 0.258072466;
                } else {
                    var97 = -0.071662508;
                }
            }
        }
        double var98;
        if ((input[84]) >= (1.0)) {
            if ((input[85]) >= (1.0)) {
                if ((input[59]) >= (1.0)) {
                    var98 = 1.07251668;
                } else {
                    var98 = 0.469722599;
                }
            } else {
                if ((input[80]) >= (1.0)) {
                    var98 = 0.320882767;
                } else {
                    var98 = -1.08604491;
                }
            }
        } else {
            if ((input[49]) >= (1.0)) {
                if ((input[39]) >= (1.0)) {
                    var98 = 0.749469221;
                } else {
                    var98 = -0.104672313;
                }
            } else {
                if ((input[42]) >= (1.0)) {
                    var98 = 0.285505116;
                } else {
                    var98 = -0.0645143017;
                }
            }
        }
        double var99;
        if ((input[108]) >= (1.0)) {
            if ((input[118]) >= (1.0)) {
                if ((input[65]) >= (1.0)) {
                    var99 = 1.35473847;
                } else {
                    var99 = 0.475269854;
                }
            } else {
                if ((input[98]) >= (1.0)) {
                    var99 = 0.342021435;
                } else {
                    var99 = -0.913605213;
                }
            }
        } else {
            if ((input[14]) >= (1.0)) {
                if ((input[10]) >= (1.0)) {
                    var99 = 0.6067819;
                } else {
                    var99 = 0.0593177453;
                }
            } else {
                if ((input[38]) >= (1.0)) {
                    var99 = 0.24235034;
                } else {
                    var99 = -0.0652768984;
                }
            }
        }
        return ((((((((((((((((((((((((((((((((((((((((((((((((((((((((((((((((((((((((((((((((((((((((((((((((((((0.5) + (var0)) + (var1)) + (var2)) + (var3)) + (var4)) + (var5)) + (var6)) + (var7)) + (var8)) + (var9)) + (var10)) + (var11)) + (var12)) + (var13)) + (var14)) + (var15)) + (var16)) + (var17)) + (var18)) + (var19)) + (var20)) + (var21)) + (var22)) + (var23)) + (var24)) + (var25)) + (var26)) + (var27)) + (var28)) + (var29)) + (var30)) + (var31)) + (var32)) + (var33)) + (var34)) + (var35)) + (var36)) + (var37)) + (var38)) + (var39)) + (var40)) + (var41)) + (var42)) + (var43)) + (var44)) + (var45)) + (var46)) + (var47)) + (var48)) + (var49)) + (var50)) + (var51)) + (var52)) + (var53)) + (var54)) + (var55)) + (var56)) + (var57)) + (var58)) + (var59)) + (var60)) + (var61)) + (var62)) + (var63)) + (var64)) + (var65)) + (var66)) + (var67)) + (var68)) + (var69)) + (var70)) + (var71)) + (var72)) + (var73)) + (var74)) + (var75)) + (var76)) + (var77)) + (var78)) + (var79)) + (var80)) + (var81)) + (var82)) + (var83)) + (var84)) + (var85)) + (var86)) + (var87)) + (var88)) + (var89)) + (var90)) + (var91)) + (var92)) + (var93)) + (var94)) + (var95)) + (var96)) + (var97)) + (var98)) + (var99);
    }
}
